digraph Tree {
node [shape=box] ;
0 [label="X[3] <= 0.817\nentropy = 1.585\nsamples = 149\nvalue = [49, 50, 50]"] ;
1 [label="entropy = 0.0\nsamples = 49\nvalue = [49, 0, 0]"] ;
0 -> 1 [labeldistance=2.5, labelangle=45, headlabel="True"] ;
2 [label="X[3] <= 2.106\nentropy = 1.0\nsamples = 100\nvalue = [0, 50, 50]"] ;
0 -> 2 [labeldistance=2.5, labelangle=-45, headlabel="False"] ;
3 [label="X[3] <= 1.695\nentropy = 0.965\nsamples = 82\nvalue = [0, 50, 32]"] ;
2 -> 3 ;
4 [label="X[0] <= 5.83\nentropy = 0.391\nsamples = 52\nvalue = [0, 48, 4]"] ;
3 -> 4 ;
5 [label="entropy = 0.0\nsamples = 24\nvalue = [0, 24, 0]"] ;
4 -> 5 ;
6 [label="X[2] <= 5.501\nentropy = 0.592\nsamples = 28\nvalue = [0, 24, 4]"] ;
4 -> 6 ;
7 [label="entropy = 0.391\nsamples = 26\nvalue = [0, 24, 2]"] ;
6 -> 7 ;
8 [label="entropy = 0.0\nsamples = 2\nvalue = [0, 0, 2]"] ;
6 -> 8 ;
9 [label="X[3] <= 1.758\nentropy = 0.353\nsamples = 30\nvalue = [0, 2, 28]"] ;
3 -> 9 ;
10 [label="X[0] <= 6.273\nentropy = 1.0\nsamples = 2\nvalue = [0, 1, 1]"] ;
9 -> 10 ;
11 [label="entropy = 0.0\nsamples = 1\nvalue = [0, 0, 1]"] ;
10 -> 11 ;
12 [label="entropy = 0.0\nsamples = 1\nvalue = [0, 1, 0]"] ;
10 -> 12 ;
13 [label="X[0] <= 5.997\nentropy = 0.222\nsamples = 28\nvalue = [0, 1, 27]"] ;
9 -> 13 ;
14 [label="entropy = 0.592\nsamples = 7\nvalue = [0, 1, 6]"] ;
13 -> 14 ;
15 [label="entropy = 0.0\nsamples = 21\nvalue = [0, 0, 21]"] ;
13 -> 15 ;
16 [label="entropy = 0.0\nsamples = 18\nvalue = [0, 0, 18]"] ;
2 -> 16 ;
}